#ifndef MODEL_DATA_H
#define MODEL_DATA_H

// Input Scaler (StandardScaler)
const float INPUT_MEAN[] = {5.665277f, 2.188115f, 23.337796f};
const float INPUT_SCALE[] = {2.955580f, 1.470181f, 8.264822f};

// Output Scaler (StandardScaler)
const float OUTPUT_MEAN[] = {28.469703f, 4.763524f};
const float OUTPUT_SCALE[] = {9.749136f, 2.370584f};

// Layer 1 (3 -> 32)
#define W1_ROWS 32
#define W1_COLS 3
const float W1[] = {0.521528f, -0.017651f, 0.073546f, 0.098166f, 0.744471f, -0.217574f, 0.376185f, 0.050907f, -0.789563f, 0.334694f, -0.619953f, 0.247490f, 0.535304f, -0.386697f, -0.182577f, -0.431743f, 0.380470f, 0.146938f, 0.408168f, 0.487303f, 0.054606f, 0.672662f, 0.572455f, -0.533489f, 0.072548f, 0.101314f, -0.005507f, 0.234917f, -0.382078f, 0.750120f, -0.565893f, -0.174206f, 0.555540f, -0.616260f, -0.524016f, -0.685548f, -0.566943f, -0.418615f, 0.481285f, 0.417836f, 0.539583f, -0.394105f, 0.008183f, -0.337689f, -0.309294f, -0.323131f, -0.225262f, -0.371958f, -0.537390f, -0.145822f, 0.410732f, 0.512539f, -0.041327f, -0.288388f, -0.088719f, 0.513181f, 0.832063f, 0.237043f, 0.198745f, -0.177551f, 0.266916f, -0.492662f, 0.410681f, 0.642129f, -0.398897f, 0.378641f, 0.497708f, 0.242132f, 0.461272f, -0.289230f, -0.244544f, 0.174915f, -0.444309f, -0.067567f, 0.480117f, 0.377789f, 0.706447f, -0.327958f, -0.466935f, 0.212560f, -0.704323f, -0.078390f, 0.456149f, 0.545615f, 0.509250f, 0.234860f, 0.373139f, -0.237307f, 0.231490f, -0.804660f, 0.636764f, 0.512855f, -0.370989f, -0.544830f, 0.685857f, -0.064427f};
const float B1[] = {-0.707348f, -0.079364f, 0.587163f, -0.322547f, -0.440949f, -0.448187f, 0.434605f, -0.547182f, -0.361856f, 0.486129f, -0.115376f, -0.125708f, 0.312446f, -0.337147f, -0.007672f, -0.598816f, 0.306557f, 0.535693f, -0.499119f, -0.560058f, 0.382468f, 0.285790f, 0.397561f, -0.623383f, 0.289128f, 0.238254f, 0.491879f, 0.066207f, 0.176608f, -0.476390f, 0.501901f, 0.406085f};

// Layer 2 (32 -> 16)
#define W2_ROWS 16
#define W2_COLS 32
const float W2[] = {0.057647f, 0.021863f, -0.187920f, 0.019258f, 0.233060f, -0.069786f, 0.139164f, -0.094468f, -0.078732f, -0.096370f, -0.066154f, -0.060092f, -0.167851f, -0.240321f, -0.114961f, 0.072500f, -0.270105f, 0.011059f, -0.066785f, 0.097635f, -0.069157f, -0.223916f, 0.023301f, -0.047546f, -0.099377f, -0.274786f, -0.013135f, -0.207905f, -0.024674f, -0.138573f, 0.017801f, 0.038843f, -0.021959f, 0.336066f, 0.328979f, -0.055547f, 0.234740f, -0.055365f, 0.176742f, -0.177793f, -0.153881f, 0.070877f, 0.009886f, 0.308791f, 0.024003f, 0.139077f, 0.035977f, 0.242309f, 0.207966f, -0.002169f, 0.046030f, -0.102553f, 0.086378f, 0.058627f, 0.197898f, 0.043932f, -0.026295f, -0.272667f, 0.216850f, -0.202579f, 0.123443f, 0.078716f, -0.091931f, 0.249163f, 0.185544f, 0.125345f, -0.076486f, -0.026643f, -0.732227f, 0.149493f, 0.131463f, -0.123292f, -0.278434f, 0.251949f, 0.075259f, 0.279146f, 0.146433f, -0.019415f, 0.118806f, 0.187305f, 0.026049f, -0.171008f, -0.006169f, -0.132550f, 0.071782f, -0.104185f, -0.036145f, 0.080470f, 0.292316f, 0.005064f, 0.274326f, -0.277593f, -0.193981f, 0.068074f, 0.083088f, 0.199394f, -0.236948f, 0.060362f, -0.070383f, 0.016790f, -0.130723f, -0.172535f, -0.134347f, 0.050859f, -0.119711f, -0.197102f, -0.155584f, 0.046881f, -0.045300f, -0.063254f, -0.114852f, -0.152717f, -0.226453f, -0.110482f, -0.166927f, -0.182860f, -0.257825f, 0.085059f, 0.034648f, -0.066439f, -0.083694f, -0.008684f, -0.050958f, 0.105354f, -0.241315f, -0.077168f, -0.100307f, -0.252891f, 0.025757f, 0.075124f, 0.061823f, -0.015290f, 0.071503f, 0.214427f, 0.087464f, 0.262408f, -0.004087f, -0.034310f, 0.212536f, -0.223911f, -0.230059f, 0.126654f, 0.051109f, 0.005380f, 0.123480f, 0.128634f, 0.227307f, 0.319375f, -0.002914f, 0.071240f, 0.133902f, -0.000004f, 0.143683f, 0.061110f, -0.059746f, 0.214545f, 0.233235f, 0.024180f, 0.159117f, -0.105697f, 0.816060f, -0.113187f, -0.227943f, -0.129652f, -0.215702f, 0.120036f, 0.197574f, -0.048514f, 0.018211f, 0.010916f, 0.080838f, -0.139602f, -0.000344f, -0.373547f, -0.303651f, -0.224562f, 0.216929f, 0.203570f, 0.252135f, -0.078556f, -0.202535f, 0.297965f, 0.204797f, 0.021811f, 0.078759f, 0.238932f, -0.076667f, 0.075661f, 0.074480f, -0.067015f, 0.266579f, 0.270472f, 0.157397f, -0.047400f, -0.046772f, 0.348056f, 0.112051f, 0.168582f, 0.033015f, 0.199685f, 0.069690f, 0.226381f, -0.166770f, 0.078394f, -0.083771f, 0.137023f, 0.087254f, -0.303689f, -0.113459f, 0.260675f, -0.065453f, 0.316475f, 0.088825f, 0.219073f, 0.080576f, 0.007407f, 0.220960f, 0.240195f, -0.088467f, 0.174436f, 0.203389f, 0.252494f, 0.180379f, -0.148794f, -0.051791f, 0.083725f, 0.251571f, -0.175962f, 0.120214f, 0.062435f, -0.085092f, 0.167342f, 0.214977f, 0.047397f, -0.070548f, -0.101656f, -0.066708f, -0.101329f, 0.099931f, -0.235823f, -0.182775f, 0.285657f, -0.333164f, 0.077151f, 0.129290f, -0.073356f, -0.108046f, 0.082584f, -0.042264f, 0.071879f, -0.280883f, -0.170435f, -0.014222f, 0.165825f, 0.192588f, -0.212526f, -0.122508f, 0.250614f, 0.390696f, -0.127770f, 0.020811f, 0.044179f, 0.085576f, -0.120527f, 0.362709f, 0.209260f, -0.016451f, 0.326150f, 0.195283f, 0.077822f, 0.010918f, 0.321166f, 0.001768f, -0.118019f, 0.234556f, -0.168278f, -0.037957f, -0.087922f, 0.000940f, 0.250706f, 0.144158f, -0.123220f, 0.169914f, -0.089882f, 0.134900f, 0.197658f, 0.128351f, 0.144260f, -0.124770f, 0.286313f, -0.286774f, -0.425382f, -0.025153f, 0.262702f, 0.006430f, -0.236397f, 0.060992f, 0.303486f, 0.436527f, 0.194417f, 0.142084f, 0.454508f, 0.035751f, 0.326039f, 0.230141f, -0.417137f, -0.683002f, -0.161610f, 0.096858f, 0.091419f, -0.135276f, 0.026531f, 0.085955f, 0.037780f, -0.069655f, -0.414892f, -0.307610f, 0.821404f, -0.008068f, 0.077116f, 0.320088f, 0.010614f, -0.078362f, 0.319582f, 0.105362f, 0.232612f, 0.123664f, -0.003445f, 0.140671f, 0.211077f, 0.037531f, 0.048702f, 0.077472f, -0.172389f, 0.342742f, -0.369688f, 0.035933f, -0.002946f, -0.000378f, -0.063336f, 0.032990f, 0.136668f, -0.050830f, -0.091711f, 0.165206f, 0.151552f, -0.065521f, 0.205371f, 0.203548f, 0.257410f, 0.277254f, -0.067897f, -0.089285f, 0.143731f, -0.271608f, -0.068417f, -0.161575f, 0.332557f, -0.083192f, 0.289968f, -0.104600f, 0.080108f, 0.116573f, 0.119568f, 0.330908f, 0.577378f, -0.003473f, 0.001519f, 0.191353f, -0.392384f, 0.270282f, -0.165628f, 0.098150f, -0.140306f, -0.025769f, 0.131329f, 0.216625f, 0.067121f, 0.018985f, -0.235510f, -0.256780f, 0.278572f, -0.150150f, 0.141579f, 0.176630f, -0.087171f, -0.011470f, 0.159181f, 0.050544f, 0.130456f, 0.274640f, 0.296857f, 0.002083f, 0.131527f, -0.208793f, -0.104969f, 0.114640f, -0.015379f, -0.034393f, -0.136620f, 0.044894f, 0.152963f, 0.286405f, 0.219676f, -0.004091f, 0.299478f, 0.184475f, -0.161821f, 0.109657f, 0.052329f, -0.012673f, 0.262498f, 0.168804f, 0.383962f, 0.155248f, -0.068796f, -0.293998f, 1.231289f, 0.400075f, -0.107191f, 0.285085f, -0.038599f, 0.136145f, 0.026927f, 0.022735f, 0.743533f, 0.088444f, 0.014806f, -0.100363f, 0.466569f, -0.101148f, -0.040486f, 0.008039f, 0.196436f, 0.197445f, 0.231648f, 0.094027f, 0.226102f, 0.174063f, 0.007165f, -0.258334f, -0.407880f, 0.063096f, 0.150703f, 0.310652f, -0.538541f, -0.140843f, -0.114976f, 0.196682f, 0.005851f, -0.122713f, 0.114267f, -0.042866f, 0.204066f, -0.028452f, 0.035584f, 0.012163f, 0.113777f, -0.293752f, -0.157357f, 0.001835f, -0.014002f, 0.020730f, -0.075408f, -0.213392f, 0.087301f, 0.041992f, 0.057380f, 0.373711f, 0.246976f, 0.292574f, 0.001174f, 0.171111f, 0.185859f, -0.217681f, 0.232653f, 0.171307f, 0.464538f, 0.333725f, -0.051372f, 0.064527f, -0.020058f, -0.029211f, -0.353930f, 0.031474f, 0.149894f, -0.219040f, -0.285216f, -0.113896f, 0.057398f, 0.029458f, -0.005842f, 0.187400f, -0.223810f, 0.070651f, 0.407262f, 0.161193f, -0.075790f, -0.169404f, -0.058072f, -0.266473f, -0.185017f, 0.032720f, 0.127305f, -0.144489f, -0.308711f, 0.084290f, -0.037007f, -0.131952f, 0.484048f, -0.394028f, 0.028042f};
const float B2[] = {-0.026387f, 0.236682f, 0.093754f, 0.010870f, 0.024976f, -0.007851f, 0.265165f, 0.148893f, -0.006615f, -0.173989f, 0.135890f, 0.271106f, 0.241414f, -0.015148f, 0.042976f, -0.173127f};

// Layer 3 (16 -> 2)
#define W3_ROWS 2
#define W3_COLS 16
const float W3[] = {0.058915f, -0.302223f, -0.179551f, 0.056552f, 0.211773f, 0.063587f, 0.242062f, -0.000223f, -0.204640f, -0.385188f, 0.225220f, 0.099287f, 0.343199f, -0.329450f, 0.402144f, -0.213169f, 0.063945f, -0.130356f, -0.335420f, 0.014304f, 0.277985f, -0.277409f, 0.197387f, 0.250511f, -0.150658f, -0.032584f, 0.055755f, -0.404879f, 0.185488f, 0.151914f, 0.027826f, -0.022701f};
const float B3[] = {-0.226274f, -0.002234f};

#endif // MODEL_DATA_H
