#ifndef MODEL_DATA_H
#define MODEL_DATA_H

// Input Scaler (StandardScaler)
const float INPUT_MEAN[] = {0.344557f, 0.554017f, 30.286839f};
const float INPUT_SCALE[] = {0.009421f, 0.005650f, 3.220610f};

// Output Scaler (StandardScaler)
const float OUTPUT_MEAN[] = {3.172857f, 0.082475f};
const float OUTPUT_SCALE[] = {0.604819f, 0.016020f};

// Layer 1 (3 -> 32)
#define W1_ROWS 32
#define W1_COLS 3
const float W1[] = {0.618971f, -0.214745f, 0.591018f, -0.174077f, -0.365979f, 0.496671f, -0.774533f, 0.166580f, 0.395102f, 0.005098f, 0.212488f, 0.509480f, -0.460896f, 0.027267f, 0.142310f, 0.061014f, -0.520123f, -0.380565f, -0.671319f, -0.415637f, 0.469536f, -0.219728f, 0.000173f, 0.256665f, -0.428955f, 0.537340f, -0.201601f, -0.387446f, 0.433461f, 0.585460f, 0.146611f, -0.805068f, 0.141880f, -0.127864f, 0.011803f, -0.427996f, -0.528716f, -0.581003f, 0.210691f, -0.250724f, -0.262217f, 0.408456f, 0.079792f, -0.805563f, -0.262161f, -0.614106f, 0.139958f, 0.501043f, 0.592447f, 0.245853f, 0.538855f, -0.825400f, 0.859093f, 0.238869f, -0.888941f, -0.648659f, 0.466637f, -0.529488f, -0.350096f, -0.278126f, 0.060596f, 0.234506f, 0.331284f, -0.071161f, 0.823923f, -0.877883f, -0.876056f, 0.344745f, 0.331668f, -0.189184f, 0.135606f, 0.203806f, -0.739772f, -0.697719f, 0.373021f, 0.563031f, 0.194155f, 0.174433f, -0.547364f, -0.233731f, 0.161687f, -0.223211f, -0.713401f, -0.016595f, 0.834066f, 0.311550f, -0.690771f, -0.761021f, 0.333342f, 0.093076f, 0.620235f, -0.137541f, -0.043933f, -0.288596f, -0.172058f, 0.377923f};
const float B1[] = {0.106225f, 0.465866f, 0.306942f, 0.278397f, 0.167415f, 0.745110f, 0.054300f, -0.488894f, -0.574744f, 0.485409f, 0.036797f, 0.681816f, -0.065118f, 0.469439f, 0.477777f, -0.463568f, 0.029859f, -0.592836f, 0.496731f, 0.156620f, 0.578773f, 0.063831f, 0.004233f, -0.531381f, 0.558642f, 0.178020f, -0.006515f, 0.381868f, -0.288195f, 0.414262f, 0.111415f, 0.132511f};

// Layer 2 (32 -> 16)
#define W2_ROWS 16
#define W2_COLS 32
const float W2[] = {0.033132f, 0.022063f, 0.072067f, -0.027651f, -0.249203f, 0.083018f, 0.261799f, 0.084267f, -0.284788f, 0.103793f, -0.044527f, 0.105574f, 0.349635f, 0.174696f, 0.153942f, 0.266504f, -0.057755f, -0.324832f, 0.441765f, -0.038458f, 0.155605f, -0.710800f, -0.307222f, -0.053274f, 0.068207f, 0.045713f, 0.037931f, -0.113966f, 0.425344f, 0.127439f, -0.188118f, 0.029329f, 0.062478f, 0.021986f, 0.155919f, 0.159235f, -0.218455f, -0.169115f, 0.305244f, 0.021470f, -0.097283f, -0.128059f, 0.290009f, -0.267618f, -1.569922f, 0.183328f, -0.269655f, 0.216207f, 0.073870f, -0.317636f, 0.305712f, -0.215802f, 0.191533f, 0.039503f, -0.313431f, -0.019386f, 0.646053f, -0.201771f, 0.122099f, -0.322462f, -0.070026f, -0.309131f, -0.229979f, -0.004553f, 0.102954f, 0.108933f, 0.179516f, 0.211033f, -0.221746f, -0.333354f, 0.224349f, -0.116218f, -0.323157f, 0.148353f, 0.289904f, -0.117150f, -1.037676f, 0.145239f, -0.167344f, 0.186022f, -0.152742f, -0.149819f, 0.259875f, -0.337583f, 0.162795f, -0.208399f, -0.294818f, 0.024467f, 0.534133f, 0.034780f, -0.006176f, -0.298748f, -0.061655f, -0.236858f, -0.092524f, 0.283476f, 0.166735f, 0.142836f, 0.140497f, -0.053914f, -0.151961f, 0.101583f, 0.346061f, 0.062831f, -0.214389f, 0.031527f, 0.361154f, 0.045336f, -0.219661f, -0.022753f, -0.050108f, 0.401674f, 0.244669f, -0.018757f, 0.486210f, -0.063972f, 0.246559f, -0.490135f, -0.198050f, 0.017460f, 0.306502f, -0.114949f, -0.059604f, 0.066319f, -0.143712f, -0.309492f, -0.098353f, 0.020960f, -0.616690f, 0.297217f, -0.123039f, 0.240392f, -0.431997f, 0.076314f, -0.406995f, -0.012999f, -0.058640f, -0.247460f, -0.031681f, 0.283133f, -0.285600f, 0.270249f, -0.189321f, -0.005199f, -0.307913f, -0.155254f, -0.372878f, 0.191186f, 0.326976f, -0.009704f, -0.227833f, -0.119890f, 0.191941f, -0.499896f, -0.529615f, 0.264987f, -0.339334f, -0.113703f, -0.611843f, -0.446642f, -0.139063f, 0.014654f, 0.164012f, -0.175823f, 0.073264f, -0.242828f, 0.023583f, -0.153676f, -0.268213f, 0.183365f, -0.052878f, 0.097903f, 0.219340f, -0.032488f, -0.322147f, -0.502626f, -0.122378f, -0.613985f, 0.390587f, 0.219030f, 0.008834f, 0.228554f, 0.059440f, -0.074275f, 0.338065f, -0.036258f, 0.168688f, 0.049046f, -0.328190f, 0.245860f, 0.108422f, 0.003858f, 0.085187f, -0.246490f, -0.067211f, 0.162740f, 0.031828f, -0.095822f, 0.032635f, -0.159726f, -0.074903f, -0.029961f, 0.007690f, -0.193813f, 0.026712f, -0.006391f, 0.008795f, -0.019463f, -0.115071f, -0.003398f, -0.156873f, -0.041517f, -0.072100f, -0.008632f, -0.052913f, -0.115402f, 0.084532f, -0.096387f, -0.058929f, -0.200736f, -0.057755f, 0.101143f, 0.047691f, 0.066645f, -0.397823f, -0.213783f, -0.173041f, -0.096227f, 0.230046f, 0.400221f, -0.125146f, 0.099274f, -0.206799f, -0.007334f, -0.199222f, 0.308693f, 0.008920f, -0.086234f, 0.289826f, -0.978813f, -0.210243f, -0.614858f, -0.425256f, 0.149283f, -0.149116f, 0.576616f, 0.334757f, -0.021700f, -0.221577f, -0.256476f, 0.015624f, 0.254221f, 0.055919f, 0.172624f, 0.406061f, 0.067212f, 0.227684f, 0.025418f, 0.093172f, 0.135616f, -0.128414f, -0.157781f, 0.115857f, -0.075954f, -0.223386f, 0.104836f, 0.131589f, -0.344379f, -0.904969f, 0.277465f, -0.158698f, -0.060726f, 0.201842f, -0.282868f, 0.272976f, -0.080015f, 0.021917f, -0.245743f, -0.395510f, 0.005513f, 0.352017f, -0.010467f, -0.094528f, -0.099486f, -0.125350f, -0.368737f, 0.051787f, 0.276423f, 0.068193f, -0.098413f, -0.265455f, -0.092846f, -0.083388f, 0.119975f, 0.048889f, -0.057667f, -0.073146f, -0.258793f, -0.075575f, 0.003761f, -0.141488f, -0.256987f, -0.063290f, -0.112551f, -0.203929f, 0.052927f, -0.132012f, -0.005739f, -0.123724f, 0.066825f, -0.230257f, -0.050325f, -0.017699f, -0.190955f, 0.092060f, -0.074419f, -0.169690f, -0.085808f, 0.095057f, -0.165890f, 0.113513f, 0.032711f, 0.038916f, 0.254324f, -0.214941f, -0.394570f, 0.354452f, 0.131033f, -0.164390f, 0.254826f, 0.102931f, -0.266357f, -0.751449f, 0.095724f, -0.350541f, 0.165861f, 0.179947f, -0.058078f, 0.259427f, -0.276743f, -0.063691f, -0.239180f, -0.306306f, -0.241675f, 0.462678f, 0.199535f, -0.066422f, -0.188688f, -0.246236f, -0.368937f, 0.101052f, 0.191176f, -0.580554f, 0.309132f, -0.258511f, -0.239941f, -0.515586f, 0.101811f, -0.422181f, 0.148421f, -0.442563f, -0.283173f, -0.031663f, 0.354051f, -0.285857f, 0.214949f, 0.040127f, -0.341731f, -0.258214f, -0.471528f, -0.379435f, 0.313458f, 0.317415f, 0.472918f, -0.238978f, 0.004648f, 0.239647f, -0.465043f, -0.343161f, 0.030525f, -0.612867f, -0.095152f, -0.500952f, -0.427579f, -0.055825f, 0.230835f, 0.312427f, 0.131573f, -0.118807f, -0.154182f, 0.438413f, -0.082128f, -0.080641f, -0.076443f, 0.173475f, -0.365977f, -0.381709f, -0.013141f, -0.198361f, 0.277026f, -0.055328f, 0.080303f, 0.315303f, -0.262549f, 0.199632f, -0.156602f, -0.259469f, 0.009345f, 0.278181f, 0.038607f, 0.161587f, -0.555141f, -0.295454f, -0.294455f, -0.218739f, 0.128732f, 0.121674f, 0.292470f, 0.095510f, 0.156351f, -0.248818f, -0.584294f, 0.450094f, -0.026377f, -0.075397f, 0.161120f, 0.277241f, -0.425977f, -0.317735f, 0.076708f, -0.611616f, 0.290333f, -0.072872f, 0.101881f, 0.254571f, -0.365505f, -0.062445f, -0.190473f, -0.043583f, -0.185315f, 0.187834f, 0.002369f, 0.251070f, -0.632371f, -0.103782f, -0.224439f, -0.033124f, 0.143670f, -0.238041f, -0.016948f, 0.097914f, -0.069448f, -0.028850f, 0.365991f, 0.240461f, -0.056011f, -0.196475f, 0.025240f, 0.305784f, 0.213330f, -0.015912f, 0.001995f, 0.420481f, -0.219185f, -0.198843f, -0.528770f, 0.102727f, 0.265241f, -0.248584f, 0.411818f, 0.222925f, -0.016337f, 0.071580f, -0.149044f, -0.093271f, 0.295984f, 0.333415f, -0.098302f, 0.024711f, 0.130762f, -0.169787f, 0.013919f, 0.073089f, 0.139356f, -0.190560f, 0.073902f, 0.148561f, 0.030350f, 0.063062f, 0.104570f, 0.268889f, -0.072435f, -0.654025f, 0.028693f, -0.020761f, 0.041065f, 0.114937f, -0.148435f, -0.126154f, 0.138189f, 0.071553f, -0.175439f, -0.245045f, -0.060530f, 0.174886f, -0.169805f, -0.259108f, -0.023808f, -0.350861f, -0.126167f, -0.396296f, 0.126207f};
const float B2[] = {0.027004f, -0.036647f, -0.149390f, 0.342743f, 0.357168f, -0.039378f, -0.067402f, -0.027736f, 0.025825f, -0.067989f, 0.180689f, 0.410984f, -0.076044f, -0.005703f, -0.138598f, 0.254435f};

// Layer 3 (16 -> 2)
#define W3_ROWS 2
#define W3_COLS 16
const float W3[] = {0.229208f, 0.234995f, -0.007480f, 0.170562f, 0.534088f, -0.385322f, 0.065946f, -0.349843f, 0.140599f, -0.012799f, 0.387378f, 0.627889f, 0.343581f, 0.169686f, -0.309993f, 0.334655f, 0.291254f, 0.091581f, 0.377834f, 0.328182f, 0.567882f, -0.443301f, -0.057392f, -0.234587f, 0.315199f, -0.080135f, 0.040727f, 0.635683f, -0.009938f, 0.289574f, -0.435589f, -0.009329f};
const float B3[] = {-0.091886f, -0.148161f};

#endif // MODEL_DATA_H
