#ifndef MODEL_DATA_H
#define MODEL_DATA_H

// Input Scaler (StandardScaler)
const float INPUT_MEAN[] = {0.344557f, 0.554017f, 30.286839f};
const float INPUT_SCALE[] = {0.009421f, 0.005650f, 3.220610f};

// Output Scaler (StandardScaler)
const float OUTPUT_MEAN[] = {3.172857f, 0.082475f};
const float OUTPUT_SCALE[] = {0.604819f, 0.016020f};

// Layer 1 (3 -> 32)
#define W1_ROWS 32
#define W1_COLS 3
const float W1[] = {0.047329f, -0.367637f, 0.185086f, 0.168538f, 0.238964f, -0.431063f, 0.157265f, -0.529111f, 0.691427f, 0.802767f, 0.433179f, -0.651377f, -0.793020f, 0.039045f, 0.133861f, -0.629542f, 0.156542f, -0.109226f, 0.299090f, 0.640343f, 0.469028f, -0.611048f, -0.205342f, -0.379926f, 0.488283f, 0.543640f, 0.405880f, 1.054897f, -0.589498f, 0.472363f, -0.096791f, -1.135450f, 0.502131f, 0.384322f, -0.316793f, -0.304233f, -0.744906f, 0.205918f, -0.238910f, 0.707139f, -0.425003f, -0.741200f, 0.227482f, 0.641114f, 0.410893f, -0.394267f, -0.768151f, 0.397864f, 0.176318f, 0.257114f, 0.519996f, 0.032077f, 0.439921f, 0.309509f, -0.498415f, 0.090323f, 0.422455f, -0.492796f, -0.804545f, 0.524775f, -0.192071f, -0.738998f, 0.525879f, -0.417575f, -0.654206f, 0.249455f, 0.561209f, 0.095835f, 0.027583f, -0.637748f, -0.185047f, 0.395641f, 0.481187f, 0.504645f, 0.541859f, -1.047663f, -0.155125f, -0.374001f, -0.158873f, 0.015684f, -0.081436f, -0.971232f, -0.207752f, 0.547731f, 0.498458f, 0.289146f, 0.059590f, 0.505287f, 0.061935f, 0.112866f, 0.019591f, -0.809000f, 0.110876f, 1.112812f, -0.861473f, -0.516046f};
const float B1[] = {-0.535799f, 0.544558f, -0.274006f, 0.541395f, 0.217445f, 0.156360f, 0.303932f, -0.322058f, 0.316788f, -1.076065f, -0.432123f, 0.006853f, 0.113518f, -0.360588f, 0.037532f, 0.120692f, 0.575569f, 0.206324f, -0.393899f, -0.234633f, 0.238033f, 0.347410f, 0.688752f, -0.297755f, -0.026705f, 0.595846f, -0.539765f, 0.107074f, -0.396441f, -0.751978f, 0.126380f, 0.758379f};

// Layer 2 (32 -> 16)
#define W2_ROWS 16
#define W2_COLS 32
const float W2[] = {0.071328f, -0.301019f, 0.301050f, -0.397473f, 0.150200f, 0.152703f, 0.189291f, -0.141723f, 0.536063f, 0.109444f, 0.359848f, -0.090281f, 0.110534f, -0.196645f, -0.085102f, -0.167363f, 0.314393f, -0.117622f, -1.479602f, 0.338369f, 0.316478f, 0.235759f, -0.659152f, 0.098702f, -0.811848f, 0.224744f, -0.054761f, -0.079735f, -0.369684f, -0.230517f, 0.225469f, -1.351236f, -0.111749f, 0.098309f, -0.191281f, -0.061861f, 0.106524f, 0.033782f, -0.029277f, -0.191258f, -0.115239f, 0.032643f, -0.021607f, -0.065352f, 0.028376f, -0.157803f, -0.102535f, -0.090571f, 0.065524f, 0.020082f, 0.034230f, 0.117025f, 0.021273f, 0.202315f, -0.122579f, 0.001972f, -0.033889f, 0.016533f, -0.007224f, 0.087824f, -0.049481f, -0.045023f, 0.067624f, -0.295728f, 0.171832f, -0.104312f, 0.129046f, -0.140260f, -0.320806f, -0.055533f, 0.078176f, -0.077196f, 0.319527f, -0.087304f, 0.110984f, -0.277421f, -0.000127f, -0.092211f, 0.217871f, 0.134520f, 0.309069f, 0.095995f, 0.326416f, -0.129816f, 0.361493f, -0.364001f, 0.026124f, -0.093496f, 0.030729f, -0.703170f, 0.008916f, 0.237429f, 0.054714f, 0.061542f, -0.116171f, 0.008004f, 0.044371f, -0.227653f, 0.125533f, -0.108784f, 0.357074f, 0.089898f, 0.090438f, 0.227140f, -0.239092f, -0.194602f, -0.236799f, -0.151879f, 0.284394f, 0.045170f, -0.081138f, 0.061908f, -0.161962f, 0.125113f, 0.181380f, 0.098440f, 0.143724f, -0.257906f, -0.116042f, 0.176938f, -0.016381f, -0.007679f, -0.105764f, -0.000425f, -0.250241f, -0.148912f, -0.011418f, 0.039598f, 0.086618f, 0.001094f, -0.134091f, -0.018933f, 0.069905f, -0.223749f, -0.095078f, 0.121214f, -0.042141f, -0.064741f, -0.118498f, -0.058651f, 0.026896f, -0.168376f, -0.103109f, 0.052666f, -0.153042f, -0.076282f, -0.151880f, 0.064519f, 0.053027f, -0.137803f, -0.118733f, -0.059554f, -0.052026f, -0.099447f, 0.146053f, -0.097697f, -0.065490f, 0.035904f, -0.145496f, -0.217571f, 0.162017f, -0.019036f, 0.204508f, -0.221289f, -0.072033f, -0.025311f, 0.359478f, 0.099424f, 0.079345f, 0.421764f, -0.744016f, -0.078523f, -0.174396f, -0.181452f, 0.261344f, 0.321702f, 0.258582f, 0.396495f, 0.385457f, -0.109579f, 0.230897f, 0.120599f, 0.212700f, -0.208631f, 0.266738f, 0.668516f, -0.013628f, 0.659712f, -0.137633f, -0.207197f, 0.065356f, 0.504251f, 0.131915f, 0.074226f, 0.058902f, -0.170256f, 0.023700f, -0.104145f, -0.151872f, 0.121192f, 0.021919f, 0.049323f, 0.159987f, 0.100241f, 0.081027f, 0.084509f, -0.127008f, 0.115004f, -0.119907f, -0.214289f, -0.074059f, -0.050156f, -0.045126f, -0.093022f, -0.161790f, -0.182292f, 0.063536f, -0.170891f, -0.085911f, -0.106367f, 0.065095f, -0.149647f, -0.130324f, -0.043725f, -0.203440f, 0.280232f, -0.153373f, 0.176454f, -0.039915f, 0.044396f, -0.005310f, 0.001511f, -0.156497f, -0.659387f, 1.217632f, 0.160602f, -0.029890f, 0.338628f, -0.076181f, 0.000666f, -0.133720f, 0.075832f, 0.051643f, 0.496821f, -0.056938f, 0.001298f, -0.058426f, 0.075176f, -0.133623f, -0.524146f, -0.015457f, -0.208729f, -0.076083f, 0.026027f, 0.128730f, 0.169901f, 0.114514f, 0.227230f, -0.083382f, 0.077636f, 0.307184f, 0.217572f, 0.190882f, -0.073347f, 0.105320f, 0.579815f, 0.431937f, -0.243534f, 0.141685f, -0.494920f, 0.302747f, -0.068827f, 0.043923f, 0.214984f, -0.287406f, 0.444378f, 0.086677f, 0.238919f, -0.189096f, 0.223728f, 0.308854f, 0.495686f, 0.083778f, -0.333931f, 0.420968f, 0.933883f, 0.272994f, -0.277629f, 0.150181f, -0.168386f, -0.071613f, -0.098630f, 0.095224f, -0.152706f, -0.018314f, 0.076655f, -0.127715f, -0.035898f, 0.159169f, -0.071103f, 0.137358f, -0.015671f, -0.160394f, 0.049642f, 0.101618f, 0.082607f, 0.009258f, 0.049294f, -0.116623f, -0.046370f, -0.139834f, -0.138370f, 0.051295f, -0.079132f, -0.076485f, -0.057138f, 0.055174f, -0.174052f, -0.174755f, -0.175079f, 0.020472f, 0.082031f, 0.079573f, -0.093395f, -0.193520f, -0.007800f, -0.074767f, -0.170135f, 0.083344f, -0.140142f, -0.098423f, 0.103153f, -0.101334f, -0.065694f, 0.006638f, 0.127556f, 0.041773f, -0.184398f, -0.184275f, -0.156390f, 0.123294f, -0.001610f, -0.005875f, -0.043535f, -0.178894f, -0.001941f, 0.013497f, 0.104611f, -0.060751f, -0.113781f, 0.004719f, -0.189246f, 0.075962f, 0.046598f, -0.109526f, -0.161835f, -0.015289f, -0.169510f, 0.005683f, -0.102320f, -0.146520f, -0.152847f, -0.182476f, -0.054672f, -0.025380f, 0.036583f, 0.127179f, -0.055920f, -0.217507f, 0.174529f, 0.079505f, 0.012167f, -0.238635f, 0.073310f, -0.213381f, -0.217945f, 0.096093f, -0.183655f, 0.088848f, 0.059434f, -0.100528f, -0.095128f, 0.000993f, 0.011238f, 0.017787f, -0.391475f, 0.235082f, -0.357936f, 0.029533f, -0.164396f, 0.091821f, 0.362532f, 0.128763f, -0.177850f, -0.641244f, 0.049283f, 0.081314f, -0.137237f, 0.166016f, 0.238470f, 0.268759f, 0.227408f, 0.446391f, 0.106887f, 0.046550f, -0.397806f, -0.068636f, 0.390958f, 0.214241f, -0.261445f, 0.073917f, 0.703106f, -0.093286f, -0.340676f, -0.804486f, 0.012039f, -0.053789f, 0.201292f, -0.069596f, 0.422236f, 0.225418f, -0.141359f, 0.013489f, 0.046108f, 0.128036f, -0.509140f, 0.769510f, 0.129181f, 0.140240f, 0.180409f, 0.136366f, -0.480033f, -0.003451f, 0.126388f, -0.129400f, -0.163200f, -0.389477f, -0.027769f, -0.008938f, 0.225921f, 0.023009f, -0.640822f, -0.077066f, -0.718142f, 0.420914f, 0.352193f, -0.094296f, 0.233173f, 0.066388f, 0.031604f, -0.168688f, -0.160825f, 0.167787f, 0.203598f, -0.107812f, -0.366949f, -0.001745f, -0.082688f, 0.223673f, -0.368226f, 0.191550f, -0.172601f, 0.116667f, -0.154613f, -0.025106f, 0.123859f, -0.273264f, 0.246125f, 0.203606f, 0.163412f, -0.292373f, 0.027456f, -0.099405f, 0.385024f, 0.082795f, -0.170096f, -0.247230f, -0.238223f, 0.021426f, -1.220555f, 0.016163f, -0.108125f, 0.292584f, -0.070092f, -0.342400f, -0.078760f, 0.269587f, -0.091887f, 0.170529f, 0.143318f, -0.495271f, 0.063468f, -0.126900f, -0.026999f, 0.168118f, 0.259237f, 0.302013f, 0.147136f, 0.172162f, -0.323618f, 0.122722f, 0.175936f, 0.231819f, -0.163843f, 0.292381f, 0.809654f, -0.140647f, 0.220040f, 0.075014f, -0.114718f, 0.168841f, 0.206010f};
const float B2[] = {-0.136075f, -0.184011f, 0.195806f, -0.131266f, 0.065479f, 0.438389f, -0.023518f, 0.223434f, 0.009640f, -0.106988f, -0.116136f, -0.167704f, 0.176474f, -0.128612f, -0.077310f, 0.088708f};

// Layer 3 (16 -> 2)
#define W3_ROWS 2
#define W3_COLS 16
const float W3[] = {-0.810107f, 0.112285f, 0.212399f, 0.071617f, 0.042733f, 0.358351f, 0.038542f, -0.567397f, -0.565256f, -0.221049f, 0.315265f, 0.032204f, 0.192170f, -0.478552f, -0.439110f, 0.246618f, -0.710291f, -0.182036f, 0.229128f, 0.135278f, -0.152151f, 0.242886f, 0.013526f, -0.495304f, -0.517572f, -0.174889f, -0.167171f, -0.154810f, 0.296430f, -0.529348f, -0.458801f, 0.238266f};
const float B3[] = {0.025636f, 0.211858f};

#endif // MODEL_DATA_H
